{
  "classifier_version": "synthetic-softmax-v3",
  "families": [
    "planar",
    "rounded_slab",
    "rectangular_prism",
    "cylinder",
    "bottle",
    "revolved",
    "free_form"
  ],
  "feature_names": [
    "minor_major_ratio_q10",
    "minor_major_ratio_q50",
    "minor_major_ratio_q90",
    "rectangularity_q10",
    "rectangularity_q50",
    "rectangularity_q90",
    "hull_rectangularity_q10",
    "hull_rectangularity_q50",
    "hull_rectangularity_q90",
    "solidity_q10",
    "solidity_q50",
    "solidity_q90",
    "circularity_q10",
    "circularity_q50",
    "circularity_q90",
    "convexity_q10",
    "convexity_q50",
    "convexity_q90",
    "symmetry_lr_q10",
    "symmetry_lr_q50",
    "symmetry_lr_q90",
    "symmetry_tb_q10",
    "symmetry_tb_q50",
    "symmetry_tb_q90",
    "symmetry_180_q10",
    "symmetry_180_q50",
    "symmetry_180_q90",
    "end_ratio_q10",
    "end_ratio_q50",
    "end_ratio_q90",
    "end_asymmetry_q10",
    "end_asymmetry_q50",
    "end_asymmetry_q90",
    "profile_cv_q10",
    "profile_cv_q50",
    "profile_cv_q90",
    "radial_cv_q10",
    "radial_cv_q50",
    "radial_cv_q90",
    "rounded_rect_iou_q10",
    "rounded_rect_iou_q50",
    "rounded_rect_iou_q90",
    "rounded_radius_ratio_q10",
    "rounded_radius_ratio_q50",
    "rounded_radius_ratio_q90",
    "aspect_view_range",
    "face_fraction",
    "edge_fraction",
    "rounded_face_fraction",
    "edge_face_ratio",
    "median_quality"
  ],
  "feature_schema_version": "silhouette-clip-v3",
  "normalization": {
    "mean": [
      0.491558621,
      0.645888733,
      0.747392025,
      0.850930982,
      0.870941431,
      0.878114695,
      0.913501284,
      0.92186972,
      0.928439079,
      0.922468674,
      0.938998348,
      0.943271095,
      0.523059436,
      0.622999006,
      0.650245385,
      0.907996736,
      0.914476627,
      0.919813599,
      0.885086244,
      0.920064973,
      0.938195462,
      0.83074497,
      0.866192186,
      0.88482946,
      0.850047036,
      0.86611929,
      0.876699706,
      0.716854568,
      0.754799259,
      0.778229108,
      0.135305541,
      0.165678346,
      0.197328106,
      0.169102832,
      0.189779428,
      0.223169049,
      0.17906089,
      0.212393451,
      0.297128729,
      0.86137094,
      0.885637716,
      0.896110337,
      0.200307653,
      0.214091837,
      0.253056633,
      0.322789609,
      0.688617295,
      0.262614041,
      0.382620097,
      0.60418025,
      1.0
    ],
    "scale": [
      0.231254808,
      0.160578051,
      0.178162872,
      0.14345479,
      0.14394154,
      0.138098227,
      0.098765852,
      0.089542811,
      0.081800902,
      0.088313383,
      0.08828818,
      0.085593172,
      0.160614228,
      0.114920641,
      0.115519222,
      0.054746247,
      0.054354369,
      0.053569472,
      0.155190551,
      0.135080746,
      0.107577421,
      0.156054522,
      0.147004386,
      0.128788693,
      0.179772076,
      0.171748385,
      0.160132215,
      0.283774978,
      0.282971277,
      0.264476957,
      0.196610694,
      0.222099983,
      0.249165285,
      0.14330076,
      0.158883482,
      0.166886813,
      0.069712187,
      0.075036787,
      0.126315943,
      0.128876291,
      0.131819435,
      0.125349956,
      0.163675668,
      0.161236585,
      0.146949989,
      0.315991421,
      0.29012056,
      0.341874716,
      0.373928958,
      0.386890409,
      1.0
    ]
  },
  "ood": {
    "class_centroids": [
      [
        -1.388174619,
        -0.597422472,
        0.186661225,
        0.417053439,
        0.737187904,
        0.761103193,
        0.772801863,
        0.828662473,
        0.839978066,
        -0.041838154,
        0.476093416,
        0.505366255,
        -1.27942187,
        0.070068682,
        0.394767456,
        0.538211314,
        0.580181684,
        0.604055341,
        0.082129144,
        0.404669727,
        0.427081273,
        0.446320953,
        0.736932325,
        0.772434408,
        0.611082018,
        0.720130221,
        0.74375655,
        0.706686178,
        0.773895462,
        0.780604711,
        -0.684794621,
        -0.736574368,
        -0.720962746,
        -0.826777039,
        -0.760952723,
        -0.594979842,
        -0.372915652,
        0.356369804,
        1.421240971,
        0.301577066,
        0.64050547,
        0.676387444,
        -0.928712588,
        -0.930215022,
        -0.53693819,
        1.462926195,
        -1.134329556,
        -0.203371849,
        -0.135444614,
        -1.453206872,
        0.0
      ],
      [
        -0.900235602,
        -0.35580464,
        0.148894297,
        0.653249757,
        0.655692663,
        0.665576473,
        0.674754294,
        0.695715092,
        0.724733127,
        0.416297984,
        0.482224148,
        0.501982054,
        -0.426628139,
        0.389043383,
        0.66099564,
        0.417280367,
        0.49083102,
        0.534676705,
        0.308347603,
        0.403505122,
        0.422589611,
        0.652656822,
        0.736452855,
        0.76875769,
        0.701203168,
        0.723995098,
        0.7417382,
        0.561004255,
        0.658251421,
        0.695610699,
        -0.683739253,
        -0.734871311,
        -0.720429714,
        -0.661600575,
        -0.616027797,
        -0.491736143,
        -0.450345604,
        0.076869754,
        0.817942478,
        0.573005872,
        0.635277035,
        0.662608476,
        -0.540139254,
        -0.505041224,
        -0.4483512,
        1.013896239,
        -0.965363376,
        -0.007548589,
        0.000939899,
        -1.038787696,
        0.0
      ],
      [
        -0.40218035,
        0.070797999,
        0.371702513,
        0.769005028,
        0.744552031,
        0.756733937,
        0.819322006,
        0.835760653,
        0.846617991,
        0.492933721,
        0.480957253,
        0.492164893,
        -0.038304838,
        0.333385146,
        0.416868539,
        0.52440103,
        0.569018631,
        0.586890282,
        0.303877047,
        0.39462778,
        0.418991502,
        0.651154752,
        0.728596265,
        0.765444091,
        0.715518435,
        0.724266783,
        0.740189223,
        0.636705456,
        0.74872621,
        0.75943321,
        -0.683900314,
        -0.734801627,
        -0.733111726,
        -0.755143995,
        -0.671159812,
        -0.496745951,
        -0.497222673,
        -0.260251888,
        0.285513267,
        0.538590168,
        0.622889463,
        0.658920394,
        -0.952278356,
        -0.939961127,
        -0.79752247,
        0.622648208,
        -0.737624208,
        -0.08360376,
        0.144385396,
        -0.643341093,
        0.0
      ],
      [
        0.361413366,
        -0.391141643,
        -0.877640516,
        0.823050948,
        0.69416236,
        0.684742896,
        0.753177339,
        0.752262627,
        0.759009549,
        0.655884876,
        0.48057824,
        0.457987213,
        0.836402598,
        0.349073918,
        0.161614268,
        0.556281175,
        0.489640072,
        0.444985954,
        0.549286985,
        0.408027227,
        0.384753626,
        0.893384384,
        0.741320868,
        0.737211013,
        0.763543022,
        0.718217617,
        0.717793965,
        0.794035443,
        0.688409461,
        0.674932916,
        -0.671609076,
        -0.718578631,
        -0.756129905,
        -0.615625989,
        -0.638057557,
        -0.761392762,
        0.576981847,
        0.135031164,
        -0.565014689,
        0.820678154,
        0.650755021,
        0.632727615,
        -0.596762558,
        -0.641929688,
        -0.913402515,
        -0.94168779,
        1.073287272,
        0.736151758,
        1.646286481,
        0.942001778,
        0.0
      ],
      [
        0.845615127,
        0.275094944,
        -0.305211309,
        -0.094559177,
        -0.221073911,
        -0.269672452,
        -0.302078676,
        -0.407788015,
        -0.506043763,
        0.276814491,
        0.098381117,
        0.060545521,
        0.877506194,
        0.38248008,
        0.170213426,
        0.039935814,
        -0.047476145,
        -0.115821336,
        0.554689064,
        0.394498884,
        0.347137386,
        -0.591110439,
        -0.855344654,
        -1.105869067,
        -0.619910675,
        -0.730454288,
        -0.836647526,
        -0.918309339,
        -1.045521187,
        -1.197067904,
        1.881995518,
        1.540426266,
        1.256033299,
        0.617738058,
        0.439480119,
        0.230197376,
        -0.254880252,
        -0.668459718,
        -1.06045676,
        -0.03991584,
        -0.213712801,
        -0.298401707,
        0.445782666,
        0.449966242,
        0.31954853,
        -0.994436975,
        1.073287272,
        -0.110022881,
        -0.574341594,
        0.995507686,
        0.0
      ],
      [
        0.65329616,
        0.016643813,
        -0.521689341,
        -0.462293239,
        -0.564052297,
        -0.602020847,
        -0.819610505,
        -0.944726933,
        -1.056363541,
        0.231432275,
        0.064364939,
        0.037502338,
        0.714995871,
        0.176084064,
        -0.014795716,
        -0.184022651,
        -0.24357016,
        -0.284657515,
        0.49088497,
        0.344549278,
        0.314238895,
        -0.159378604,
        -0.381778798,
        -0.547676508,
        -0.23548476,
        -0.316098847,
        -0.37941887,
        0.083179902,
        -0.028405669,
        -0.094724275,
        0.423886261,
        0.266313852,
        0.135203324,
        0.267407097,
        0.133784151,
        -0.051134033,
        0.56936484,
        0.106141502,
        -0.595121354,
        -0.067434792,
        -0.22038169,
        -0.283526778,
        0.78534793,
        0.793959422,
        0.696207285,
        -0.966064005,
        1.073287272,
        0.281724637,
        -0.058582815,
        0.966681034,
        0.0
      ],
      [
        0.830265918,
        0.981831998,
        0.99728313,
        -2.105506756,
        -2.046468749,
        -1.996463201,
        -1.89836632,
        -1.759885897,
        -1.607931429,
        -2.031525194,
        -2.082599114,
        -2.055548273,
        -0.684549815,
        -1.700135272,
        -1.789663613,
        -1.89208705,
        -1.838625102,
        -1.770129432,
        -2.289214813,
        -2.349878019,
        -2.314792293,
        -1.893027868,
        -1.70617886,
        -1.390301626,
        -1.935951208,
        -1.840056583,
        -1.727411543,
        -1.863301895,
        -1.795355698,
        -1.618789358,
        0.418161484,
        1.118085819,
        1.539397469,
        1.974002443,
        2.112933619,
        2.165791354,
        0.429017494,
        0.254299381,
        -0.304103913,
        -2.126500629,
        -2.115332498,
        -2.048715443,
        1.78676216,
        1.773221398,
        1.68045856,
        -0.197281872,
        -0.382544675,
        -0.613329314,
        -1.023242753,
        0.231145163,
        0.0
      ]
    ],
    "class_p99_distances": [
      0.585161513,
      0.564031189,
      0.776789011,
      0.579551819,
      0.389740406,
      0.687265092,
      1.882096713
    ],
    "class_reject_distances": [
      5.585161513,
      5.564031189,
      5.776789011,
      5.579551819,
      5.389740406,
      5.687265092,
      7.528386852
    ],
    "metric": "mean squared distance in standardized feature space"
  },
  "schema_version": "1.0",
  "softmax": {
    "bias": [
      -7.001587614,
      1.124996964,
      -2.130542323,
      -1.983505806,
      1.572693023,
      1.585184614,
      0.849675997
    ],
    "temperature": 0.65,
    "weights": [
      [
        -0.719110888,
        -0.318246087,
        0.332829331,
        0.413577216,
        0.091797525,
        0.216984176,
        -0.01438205
      ],
      [
        0.169329434,
        -0.087169881,
        0.250813664,
        -0.173264533,
        -0.178759584,
        -0.012316681,
        0.031693525
      ],
      [
        0.91015356,
        -0.468463372,
        0.647218206,
        -0.656561087,
        -0.346021216,
        -0.2516233,
        0.166018776
      ],
      [
        -0.704789078,
        0.525475574,
        0.710372694,
        0.155229277,
        0.151750674,
        -0.495387118,
        -0.340742912
      ],
      [
        0.157712216,
        0.077733554,
        0.338441535,
        0.138650331,
        0.108739102,
        -0.504054526,
        -0.316242186
      ],
      [
        0.251084486,
        0.064794202,
        0.278493009,
        0.148145736,
        0.078839672,
        -0.536325075,
        -0.284344763
      ],
      [
        0.059182691,
        0.181516186,
        0.624295366,
        0.15249377,
        0.354245305,
        -0.942017254,
        -0.428749492
      ],
      [
        0.261064191,
        0.128931665,
        0.557024123,
        0.165286456,
        0.346646881,
        -1.038902714,
        -0.419608687
      ],
      [
        0.245595035,
        0.237900737,
        0.527897503,
        0.187582808,
        0.330418542,
        -1.158488802,
        -0.370265562
      ],
      [
        -1.186187618,
        0.47027736,
        0.619758097,
        0.093104293,
        -0.131414952,
        0.309050467,
        -0.173521488
      ],
      [
        0.002661701,
        0.018326032,
        -0.020827363,
        0.064011632,
        -0.176929408,
        0.251356648,
        -0.137358253
      ],
      [
        0.043813684,
        0.105584645,
        -0.132196408,
        0.068100302,
        -0.2074485,
        0.237433863,
        -0.11427702
      ],
      [
        -1.071987112,
        0.354967735,
        -0.081420528,
        0.332970792,
        0.176211224,
        0.298281392,
        -0.012033683
      ],
      [
        -0.225227001,
        0.547880416,
        -0.706559618,
        0.154388321,
        0.046517203,
        0.224638222,
        -0.039905915
      ],
      [
        -0.296434949,
        1.25340911,
        -1.133243684,
        0.043940258,
        -0.035432595,
        0.129116222,
        0.040251036
      ],
      [
        0.805784321,
        -0.692973958,
        0.106226568,
        0.006526667,
        0.029040558,
        -0.14212366,
        -0.112524393
      ],
      [
        0.141474218,
        -0.248492293,
        0.437032159,
        -0.051362088,
        -0.035339763,
        -0.155445673,
        -0.087871326
      ],
      [
        -0.010089299,
        -0.079876841,
        0.486705806,
        -0.082710069,
        -0.091577181,
        -0.164885255,
        -0.057512467
      ],
      [
        -0.446365566,
        0.189268336,
        -0.04529803,
        0.1136835,
        0.216980054,
        0.379573902,
        -0.405405268
      ],
      [
        0.064058434,
        0.0632771,
        -0.155069046,
        0.005117999,
        0.112950776,
        0.331508215,
        -0.417819091
      ],
      [
        0.011639113,
        0.13329659,
        -0.159342032,
        0.055514292,
        0.049260484,
        0.320914267,
        -0.407934387
      ],
      [
        -0.430655749,
        0.206688062,
        0.009223621,
        0.269192287,
        -0.040795468,
        0.064615708,
        -0.078146564
      ],
      [
        0.050283947,
        0.154284333,
        -0.136819008,
        0.166634708,
        -0.163096978,
        -0.044121785,
        -0.026516866
      ],
      [
        -0.013511906,
        0.231257085,
        -0.12630301,
        0.232176096,
        -0.261731779,
        -0.132436288,
        0.071284084
      ],
      [
        -0.266520104,
        0.303291497,
        0.072720451,
        0.138349897,
        -0.144353429,
        0.066326085,
        -0.168638922
      ],
      [
        -0.024242979,
        0.185426547,
        -0.001381071,
        0.12958412,
        -0.187358396,
        0.02205388,
        -0.12338961
      ],
      [
        -0.020235904,
        0.161319606,
        0.026061296,
        0.146512829,
        -0.23082088,
        -0.032042231,
        -0.050115377
      ],
      [
        0.779857121,
        -0.115525724,
        -0.330690861,
        0.250651722,
        -0.545097649,
        0.314655459,
        -0.353489194
      ],
      [
        0.222081246,
        0.098458376,
        0.313985968,
        0.131140553,
        -0.656649132,
        0.243119621,
        -0.350824213
      ],
      [
        0.103138545,
        0.287844507,
        0.296150483,
        0.179271096,
        -0.768459167,
        0.164741628,
        -0.261695191
      ],
      [
        0.013679722,
        -0.201468825,
        -0.018756023,
        -0.216795696,
        0.840248968,
        -0.238752819,
        -0.183351951
      ],
      [
        0.015262744,
        -0.225973083,
        -0.02387063,
        -0.143050892,
        0.684331157,
        -0.348591974,
        0.040030562
      ],
      [
        -0.040312424,
        -0.167930185,
        0.023277956,
        -0.123246265,
        0.560788372,
        -0.437318577,
        0.183160825
      ],
      [
        -0.335380383,
        0.217105603,
        -0.372995549,
        -0.150100193,
        0.238889875,
        0.093578969,
        0.308068856
      ],
      [
        -0.221567112,
        0.07300136,
        -0.20684793,
        -0.138345259,
        0.136699385,
        -0.002716598,
        0.358232696
      ],
      [
        -0.540549633,
        0.084380155,
        0.470273132,
        -0.270939754,
        0.001131519,
        -0.077544492,
        0.333153168
      ],
      [
        -0.813328232,
        0.266694109,
        0.020923663,
        0.400060554,
        -0.178674464,
        0.482920033,
        -0.178332715
      ],
      [
        -0.09736251,
        0.225456635,
        -0.103348027,
        0.036130884,
        -0.27487061,
        0.245533113,
        -0.031606826
      ],
      [
        0.845429991,
        0.229300452,
        -0.252365094,
        -0.410678218,
        -0.340225547,
        -0.050991316,
        -0.021371043
      ],
      [
        -0.593403728,
        0.490499508,
        -0.19186232,
        0.261995282,
        0.218992753,
        -0.04560649,
        -0.141029417
      ],
      [
        0.07047303,
        0.117298983,
        -0.169760155,
        0.126284287,
        0.099935769,
        -0.087807697,
        -0.155632318
      ],
      [
        0.076422217,
        0.166252423,
        -0.185051581,
        0.155376106,
        0.037288731,
        -0.111733331,
        -0.137885832
      ],
      [
        -0.838581051,
        1.451388946,
        -2.005715025,
        0.075753611,
        0.286965639,
        0.504323154,
        0.526685931
      ],
      [
        -1.068468321,
        1.497816207,
        -1.818393751,
        0.085569466,
        0.232540201,
        0.554945158,
        0.516839387
      ],
      [
        -0.07035533,
        0.344812672,
        -1.311810598,
        -0.140868881,
        0.09483392,
        0.628193504,
        0.457248246
      ],
      [
        0.870712918,
        0.508154443,
        0.035093303,
        -0.877041246,
        -0.307966897,
        -0.368844776,
        0.133769005
      ],
      [
        -0.782092669,
        -0.644943333,
        -0.312800062,
        1.188224192,
        0.333355476,
        0.593018713,
        -0.374188832
      ],
      [
        -0.003957962,
        0.016292694,
        -0.089586722,
        -0.041985067,
        0.143684811,
        -0.049361136,
        0.025133267
      ],
      [
        -0.450680026,
        -0.346446096,
        -0.540528363,
        0.922409935,
        0.313852414,
        0.25084891,
        -0.15070413
      ],
      [
        -1.895666578,
        -0.186299353,
        0.619838129,
        0.903300758,
        0.318943029,
        0.362071031,
        -0.111216841
      ],
      [
        0.0,
        0.0,
        0.0,
        0.0,
        0.0,
        0.0,
        0.0
      ]
    ]
  },
  "training": {
    "limitations": "Synthetic test results are software checks, not evidence of real-world accuracy. Calibrate on clips split by physical object before production routing.",
    "seed": 7142026,
    "source": "procedural binary silhouettes only",
    "test_accuracy": 0.958929,
    "test_accuracy_by_family": {
      "bottle": 1.0,
      "cylinder": 1.0,
      "free_form": 0.9875,
      "planar": 0.9375,
      "rectangular_prism": 0.825,
      "revolved": 1.0,
      "rounded_slab": 0.9625
    },
    "test_clip_count": 560,
    "test_clips_per_family": 80,
    "test_nll": 0.108193,
    "train_clip_count": 1960,
    "train_clips_per_family": 280,
    "validation_accuracy": 0.971429,
    "validation_accuracy_by_family": {
      "bottle": 1.0,
      "cylinder": 1.0,
      "free_form": 1.0,
      "planar": 0.9875,
      "rectangular_prism": 0.9,
      "revolved": 1.0,
      "rounded_slab": 0.9125
    },
    "validation_clip_count": 560,
    "validation_clips_per_family": 80,
    "validation_nll": 0.082234
  }
}
