{
  "classifier_version": "synthetic-softmax-v2",
  "families": [
    "planar",
    "rounded_slab",
    "rectangular_prism",
    "cylinder",
    "bottle",
    "revolved",
    "free_form"
  ],
  "feature_names": [
    "minor_major_ratio_q10",
    "minor_major_ratio_q50",
    "minor_major_ratio_q90",
    "rectangularity_q10",
    "rectangularity_q50",
    "rectangularity_q90",
    "hull_rectangularity_q10",
    "hull_rectangularity_q50",
    "hull_rectangularity_q90",
    "solidity_q10",
    "solidity_q50",
    "solidity_q90",
    "circularity_q10",
    "circularity_q50",
    "circularity_q90",
    "convexity_q10",
    "convexity_q50",
    "convexity_q90",
    "symmetry_lr_q10",
    "symmetry_lr_q50",
    "symmetry_lr_q90",
    "symmetry_tb_q10",
    "symmetry_tb_q50",
    "symmetry_tb_q90",
    "symmetry_180_q10",
    "symmetry_180_q50",
    "symmetry_180_q90",
    "end_ratio_q10",
    "end_ratio_q50",
    "end_ratio_q90",
    "end_asymmetry_q10",
    "end_asymmetry_q50",
    "end_asymmetry_q90",
    "profile_cv_q10",
    "profile_cv_q50",
    "profile_cv_q90",
    "radial_cv_q10",
    "radial_cv_q50",
    "radial_cv_q90",
    "rounded_rect_iou_q10",
    "rounded_rect_iou_q50",
    "rounded_rect_iou_q90",
    "rounded_radius_ratio_q10",
    "rounded_radius_ratio_q50",
    "rounded_radius_ratio_q90",
    "aspect_view_range",
    "face_fraction",
    "edge_fraction",
    "rounded_face_fraction",
    "median_quality"
  ],
  "feature_schema_version": "silhouette-clip-v2",
  "normalization": {
    "mean": [
      0.525664267,
      0.657329111,
      0.749328897,
      0.853977066,
      0.87022205,
      0.876897664,
      0.913951188,
      0.922082824,
      0.928677405,
      0.924943787,
      0.937967801,
      0.941817752,
      0.548647437,
      0.626082569,
      0.648938949,
      0.907341011,
      0.913570813,
      0.918916499,
      0.886857605,
      0.919666222,
      0.937342285,
      0.832444036,
      0.86608722,
      0.883525132,
      0.85229443,
      0.867122585,
      0.877197271,
      0.711463802,
      0.753598829,
      0.777715554,
      0.132460017,
      0.164063279,
      0.197389947,
      0.172560377,
      0.192706132,
      0.228797227,
      0.178702449,
      0.207332238,
      0.275702371,
      0.860592123,
      0.884589513,
      0.895055852,
      0.199625397,
      0.214186508,
      0.253725397,
      0.278098794,
      0.706408988,
      0.272917669,
      0.397660534,
      1.0
    ],
    "scale": [
      0.212638932,
      0.158538603,
      0.180484031,
      0.145795994,
      0.143917597,
      0.138161343,
      0.097780999,
      0.088280693,
      0.080475252,
      0.09073189,
      0.089425772,
      0.086847783,
      0.151973873,
      0.11507268,
      0.115421318,
      0.055282745,
      0.054664102,
      0.053687196,
      0.153442434,
      0.136504056,
      0.110262912,
      0.152622389,
      0.1452997,
      0.129622162,
      0.17728679,
      0.168991775,
      0.158017371,
      0.282754999,
      0.283466392,
      0.264929091,
      0.197143921,
      0.21992187,
      0.247413117,
      0.141805974,
      0.157053654,
      0.167163177,
      0.070535258,
      0.073459199,
      0.115486466,
      0.129647232,
      0.131525066,
      0.125192135,
      0.160217276,
      0.157433889,
      0.146440727,
      0.285144678,
      0.278764447,
      0.355595626,
      0.375221065,
      1.0
    ]
  },
  "ood": {
    "class_centroids": [
      [
        -1.620391139,
        -0.679012684,
        0.159824814,
        0.445079571,
        0.739271942,
        0.766526211,
        0.783004333,
        0.835491141,
        0.847912121,
        0.016894577,
        0.478703102,
        0.512704283,
        -1.441136125,
        0.009985303,
        0.373122796,
        0.512086151,
        0.542148548,
        0.561731489,
        0.147722917,
        0.403655971,
        0.423414319,
        0.519309808,
        0.746607216,
        0.775735798,
        0.630096326,
        0.726516496,
        0.749040046,
        0.705925608,
        0.77343284,
        0.776030776,
        -0.668428788,
        -0.73618826,
        -0.732184895,
        -0.840537994,
        -0.783918173,
        -0.606573873,
        -0.340682303,
        0.448742885,
        1.675719125,
        0.366856282,
        0.644780635,
        0.683424993,
        -0.92362669,
        -0.925029249,
        -0.608421038,
        1.732149407,
        -1.260741378,
        -0.227854687,
        -0.184520586,
        0.0
      ],
      [
        -0.886565431,
        -0.168083211,
        0.318366906,
        0.667213748,
        0.660108986,
        0.668127622,
        0.668652624,
        0.689981527,
        0.71900694,
        0.46084181,
        0.500444243,
        0.512386718,
        -0.261482924,
        0.544556709,
        0.742467454,
        0.39541058,
        0.486848208,
        0.529349948,
        0.297448134,
        0.405406205,
        0.418950089,
        0.653736786,
        0.750006466,
        0.772246903,
        0.712628894,
        0.731506947,
        0.750541218,
        0.534608084,
        0.646232114,
        0.675653407,
        -0.667469129,
        -0.734738689,
        -0.725168687,
        -0.669528101,
        -0.618046723,
        -0.467878272,
        -0.609773804,
        -0.149557426,
        0.757544955,
        0.583638058,
        0.649898284,
        0.673573169,
        -0.517580868,
        -0.497512938,
        -0.389067973,
        1.090602794,
        -1.004106051,
        0.013675407,
        -0.015919214,
        0.0
      ],
      [
        0.417895768,
        0.504467843,
        0.503548889,
        0.812302857,
        0.744078437,
        0.746864629,
        0.825097313,
        0.841604214,
        0.852223767,
        0.573699839,
        0.480942934,
        0.477643518,
        0.682235743,
        0.515437501,
        0.471691903,
        0.524000527,
        0.544460787,
        0.548267651,
        0.264657007,
        0.378493163,
        0.406353545,
        0.622575119,
        0.72370493,
        0.762508096,
        0.726034325,
        0.729582936,
        0.741227816,
        0.567802659,
        0.714378484,
        0.732074993,
        -0.665730938,
        -0.733019355,
        -0.732351352,
        -0.682760639,
        -0.598850571,
        -0.40572696,
        -0.633638925,
        -0.655439835,
        -0.596998674,
        0.505880118,
        0.614287173,
        0.649402927,
        -0.922100984,
        -0.891505477,
        -0.682512448,
        -0.01766127,
        -0.418395735,
        -0.288325979,
        0.366992249,
        0.0
      ],
      [
        0.170485944,
        -0.550220092,
        -0.944220762,
        0.780939055,
        0.691339551,
        0.68513708,
        0.7543819,
        0.757649647,
        0.764337432,
        0.599688481,
        0.476487123,
        0.45906302,
        0.659463642,
        0.260676489,
        0.121122906,
        0.529744915,
        0.482178674,
        0.44779221,
        0.523684283,
        0.394862117,
        0.374828852,
        0.883595921,
        0.740778064,
        0.735787174,
        0.754371081,
        0.719026561,
        0.719861918,
        0.798819052,
        0.684360059,
        0.674328597,
        -0.654495685,
        -0.711445275,
        -0.747109334,
        -0.633025631,
        -0.6563951,
        -0.78525545,
        0.659705537,
        0.292361504,
        -0.37554983,
        0.803385654,
        0.650529492,
        0.636383594,
        -0.612902812,
        -0.654545343,
        -0.899475467,
        -0.87875908,
        1.053186715,
        0.763583003,
        1.592953838,
        0.0
      ],
      [
        0.650871148,
        0.060599323,
        -0.440597559,
        -0.13054994,
        -0.231455073,
        -0.27517022,
        -0.329927212,
        -0.438272545,
        -0.541586892,
        0.238084272,
        0.10407846,
        0.071237523,
        0.725115807,
        0.307393957,
        0.131045002,
        0.063276364,
        -0.021250776,
        -0.091963893,
        0.549162558,
        0.394448244,
        0.349666835,
        -0.638376155,
        -0.889792989,
        -1.118154033,
        -0.66232747,
        -0.770957968,
        -0.875826061,
        -0.916352125,
        -1.055254197,
        -1.212161165,
        1.928617629,
        1.594543563,
        1.291004132,
        0.614912209,
        0.438252408,
        0.206473226,
        -0.113684237,
        -0.485581446,
        -0.892420115,
        -0.050880148,
        -0.221398154,
        -0.304422421,
        0.380193033,
        0.387161755,
        0.245925384,
        -0.944696837,
        1.053186715,
        -0.025390582,
        -0.56379943,
        0.0
      ],
      [
        0.511877362,
        -0.105047404,
        -0.567851537,
        -0.489856119,
        -0.571895893,
        -0.605258558,
        -0.812400198,
        -0.936742158,
        -1.048995001,
        0.145957537,
        0.024715585,
        0.004047093,
        0.543176303,
        0.094977825,
        -0.052946449,
        -0.153706409,
        -0.200982751,
        -0.23453738,
        0.501797876,
        0.361762357,
        0.33465036,
        -0.199894353,
        -0.410840554,
        -0.560678759,
        -0.270335277,
        -0.346789029,
        -0.408364252,
        0.151238383,
        0.025937365,
        -0.037898312,
        0.438710806,
        0.280676515,
        0.142438827,
        0.236740363,
        0.109384688,
        -0.090677904,
        0.669679813,
        0.273902511,
        -0.404680015,
        -0.090087651,
        -0.240431643,
        -0.303812298,
        0.753678904,
        0.765980377,
        0.651815809,
        -0.911659836,
        1.053186715,
        0.357378781,
        -0.141825964,
        0.0
      ],
      [
        0.755826347,
        0.937296225,
        0.970929249,
        -2.085129172,
        -2.03144795,
        -1.986226764,
        -1.88880876,
        -1.749711827,
        -1.592898367,
        -2.035166516,
        -2.065371447,
        -2.037082153,
        -0.907372447,
        -1.733027785,
        -1.786503612,
        -1.870812127,
        -1.833402689,
        -1.760640025,
        -2.284472775,
        -2.338628057,
        -2.307863999,
        -1.840947126,
        -1.660463133,
        -1.367445179,
        -1.890467879,
        -1.788885942,
        -1.676480686,
        -1.842041661,
        -1.789086666,
        -1.608028295,
        0.288796105,
        1.040171501,
        1.503371309,
        1.974199793,
        2.109573472,
        2.149639232,
        0.368393919,
        0.275571808,
        -0.163615446,
        -2.118792313,
        -2.097665788,
        -2.034549964,
        1.842339418,
        1.815450875,
        1.681735733,
        -0.069975178,
        -0.476316982,
        -0.593065942,
        -1.053880893,
        0.0
      ]
    ],
    "class_p99_distances": [
      0.497086273,
      0.750775051,
      0.500004743,
      0.577591388,
      0.396332993,
      0.698644375,
      2.451092976
    ],
    "class_reject_distances": [
      5.497086273,
      5.750775051,
      5.500004743,
      5.577591388,
      5.396332993,
      5.698644375,
      9.804371903
    ],
    "metric": "mean squared distance in standardized feature space"
  },
  "schema_version": "1.0",
  "softmax": {
    "bias": [
      -5.256372225,
      0.692798957,
      -1.401988177,
      -2.963226372,
      1.341037603,
      1.390235962,
      0.357357044
    ],
    "temperature": 0.65,
    "weights": [
      [
        -0.944198679,
        -0.507682529,
        0.709132515,
        0.581708756,
        -0.00307506,
        0.173831658,
        -0.009168505
      ],
      [
        0.274762211,
        -0.087252404,
        0.288760617,
        -0.239460234,
        -0.252469107,
        -0.032937451,
        0.048756603
      ],
      [
        1.154000034,
        0.06628412,
        0.073009061,
        -0.900899952,
        -0.379616708,
        -0.230157086,
        0.217739935
      ],
      [
        -0.479395661,
        0.553124742,
        0.354934807,
        0.231416752,
        0.122964679,
        -0.462563872,
        -0.319205725
      ],
      [
        0.195453215,
        0.02554108,
        0.23061609,
        0.219605704,
        0.094132328,
        -0.499209234,
        -0.265613758
      ],
      [
        0.297205353,
        -0.054766923,
        0.220756203,
        0.226173964,
        0.073815378,
        -0.538002373,
        -0.224814486
      ],
      [
        0.305779869,
        0.024688714,
        0.413890745,
        0.245018392,
        0.337332076,
        -0.88721753,
        -0.439147693
      ],
      [
        0.369457328,
        -0.011033981,
        0.425386272,
        0.271433879,
        0.333931194,
        -1.024698517,
        -0.364330274
      ],
      [
        0.347304077,
        0.060425297,
        0.413931139,
        0.305162617,
        0.327196117,
        -1.149871664,
        -0.303769947
      ],
      [
        -0.989112425,
        0.727554475,
        0.172396924,
        0.116586647,
        -0.148005592,
        0.236257393,
        -0.11501479
      ],
      [
        -0.057674991,
        0.071930749,
        -0.047692284,
        0.097521886,
        -0.181674516,
        0.217957663,
        -0.099886252
      ],
      [
        0.030654226,
        0.016539898,
        -0.059743727,
        0.087467542,
        -0.20802057,
        0.213980761,
        -0.080507984
      ],
      [
        -1.319411266,
        0.138949681,
        0.46325886,
        0.374672628,
        0.147578336,
        0.219097224,
        -0.023975933
      ],
      [
        -0.434384851,
        0.694259463,
        -0.689183253,
        0.233839546,
        0.042625147,
        0.179791947,
        -0.025775437
      ],
      [
        -0.348890824,
        0.945429155,
        -0.851081237,
        0.141413974,
        -0.039603633,
        0.137050599,
        0.016838095
      ],
      [
        0.510839069,
        -0.5288928,
        0.291111601,
        -0.100816733,
        0.054974539,
        -0.113263654,
        -0.114182979
      ],
      [
        0.175926079,
        -0.228792819,
        0.354849653,
        -0.055721756,
        -0.034981291,
        -0.112601922,
        -0.098816758
      ],
      [
        0.041111138,
        -0.052109498,
        0.344897677,
        -0.050815379,
        -0.113234257,
        -0.112043429,
        -0.057805741
      ],
      [
        -0.41513748,
        0.33102377,
        -0.170048291,
        0.056435404,
        0.218357573,
        0.36440805,
        -0.383795816
      ],
      [
        0.050838453,
        0.065358631,
        -0.018949131,
        -0.100372302,
        0.112759172,
        0.296260959,
        -0.403737666
      ],
      [
        0.061593298,
        0.025634523,
        0.063690682,
        -0.067935201,
        0.041265091,
        0.282487307,
        -0.404644609
      ],
      [
        -0.369381332,
        0.35008226,
        -0.157612097,
        0.225134754,
        -0.0046538,
        0.039039208,
        -0.082773603
      ],
      [
        0.029127028,
        0.127823393,
        -0.001335556,
        0.089143559,
        -0.139313467,
        -0.082961104,
        -0.022334218
      ],
      [
        0.027854036,
        0.079323138,
        0.088383108,
        0.145202073,
        -0.248644467,
        -0.175523005,
        0.08362256
      ],
      [
        -0.089800347,
        0.213515965,
        -0.013463115,
        0.183863208,
        -0.145500715,
        0.008762931,
        -0.156736501
      ],
      [
        -0.015312023,
        0.171927263,
        0.031429909,
        0.157693626,
        -0.194627625,
        -0.033654033,
        -0.117080039
      ],
      [
        -0.014474482,
        0.179876621,
        0.026492842,
        0.165845083,
        -0.23858395,
        -0.074708193,
        -0.044070459
      ],
      [
        0.373551658,
        -0.155362456,
        0.09083297,
        0.224822154,
        -0.511671266,
        0.345169638,
        -0.36788047
      ],
      [
        0.302417696,
        -0.003038898,
        0.282370386,
        0.121913027,
        -0.647270414,
        0.255331682,
        -0.311331492
      ],
      [
        0.144498941,
        0.155905677,
        0.306407377,
        0.22881813,
        -0.777127001,
        0.217574889,
        -0.275729657
      ],
      [
        0.005892373,
        -0.145786022,
        -0.035437957,
        -0.252018896,
        0.868527674,
        -0.21722063,
        -0.228954583
      ],
      [
        0.006287692,
        -0.205616797,
        -0.064628266,
        -0.169492005,
        0.736568629,
        -0.316326505,
        0.012176408
      ],
      [
        -0.189900037,
        0.001159968,
        -0.073935797,
        -0.134811672,
        0.601033254,
        -0.405418625,
        0.201520632
      ],
      [
        -0.264558459,
        0.097459303,
        -0.300650001,
        -0.147894173,
        0.254581393,
        0.058028455,
        0.302572803
      ],
      [
        -0.324381065,
        0.126869871,
        -0.139971594,
        -0.116497719,
        0.129712272,
        -0.018835998,
        0.342552324
      ],
      [
        -0.066451345,
        0.063052183,
        0.06850995,
        -0.288915227,
        -0.029039706,
        -0.116849932,
        0.370424059
      ],
      [
        -0.971318888,
        0.095634681,
        0.244193818,
        0.516063465,
        -0.113707379,
        0.421470409,
        -0.191919252
      ],
      [
        -0.309004772,
        0.183244699,
        0.075750833,
        0.062074003,
        -0.207019416,
        0.220794726,
        -0.025539397
      ],
      [
        1.017098288,
        0.580392691,
        -0.782754117,
        -0.524532225,
        -0.269750432,
        -0.004369679,
        -0.013602301
      ],
      [
        -0.71303066,
        0.646970374,
        -0.237417533,
        0.257825133,
        0.236999165,
        -0.020034857,
        -0.171851586
      ],
      [
        -0.055339773,
        0.138570554,
        -0.024462058,
        0.084466902,
        0.107223827,
        -0.087929493,
        -0.162112314
      ],
      [
        0.030066613,
        0.08078761,
        -0.005102835,
        0.127162369,
        0.030029119,
        -0.134749679,
        -0.127640235
      ],
      [
        -1.08827914,
        1.123354809,
        -1.40949132,
        0.10144106,
        0.272629789,
        0.466704456,
        0.534078253
      ],
      [
        -1.074990709,
        0.899049984,
        -1.20446146,
        0.199516269,
        0.199438605,
        0.49500426,
        0.487242986
      ],
      [
        -0.479125783,
        0.489170027,
        -0.745917325,
        -0.196590758,
        0.041470026,
        0.511640483,
        0.381265603
      ],
      [
        1.138300237,
        0.927710444,
        -0.335787203,
        -1.285173437,
        -0.289426436,
        -0.324523895,
        0.162157089
      ],
      [
        -0.803385093,
        -0.757590207,
        -0.489621483,
        1.654137218,
        0.331732975,
        0.546375604,
        -0.482136133
      ],
      [
        -0.322206526,
        0.140148537,
        0.021905432,
        0.028140574,
        0.057738604,
        0.123714673,
        -0.049567586
      ],
      [
        -0.480571087,
        -0.498983803,
        -0.43935566,
        1.088349664,
        0.35808902,
        0.116790159,
        -0.14609667
      ],
      [
        0.0,
        0.0,
        0.0,
        0.0,
        0.0,
        0.0,
        0.0
      ]
    ]
  },
  "training": {
    "limitations": "Synthetic test results are software checks, not evidence of real-world accuracy. Calibrate on clips split by physical object before production routing.",
    "seed": 7312026,
    "source": "procedural binary silhouettes only",
    "test_accuracy": 0.980952,
    "test_accuracy_by_family": {
      "bottle": 1.0,
      "cylinder": 1.0,
      "free_form": 1.0,
      "planar": 1.0,
      "rectangular_prism": 1.0,
      "revolved": 1.0,
      "rounded_slab": 0.866667
    },
    "test_clip_count": 315,
    "test_clips_per_family": 45,
    "test_nll": 0.037969,
    "train_clip_count": 1260,
    "train_clips_per_family": 180,
    "validation_accuracy": 0.974603,
    "validation_accuracy_by_family": {
      "bottle": 1.0,
      "cylinder": 1.0,
      "free_form": 1.0,
      "planar": 0.955556,
      "rectangular_prism": 1.0,
      "revolved": 1.0,
      "rounded_slab": 0.866667
    },
    "validation_clip_count": 315,
    "validation_clips_per_family": 45,
    "validation_nll": 0.048701
  }
}
